digraph Tree {
node [shape=box, fontname="helvetica"] ;
edge [fontname="helvetica"] ;
0 [label="x[1] <= -0.522\ngini = 0.5\nsamples = 8000\nvalue = [4017, 3983]"] ;
1 [label="x[2] <= 1.429\ngini = 0.354\nsamples = 2728\nvalue = [2101, 627]"] ;
0 -> 1 [labeldistance=2.5, labelangle=45, headlabel="True"] ;
2 [label="x[2] <= 1.198\ngini = 0.058\nsamples = 1526\nvalue = [1480, 46]"] ;
1 -> 2 ;
3 [label="x[4] <= 0.45\ngini = 0.021\nsamples = 1301\nvalue = [1287, 14]"] ;
2 -> 3 ;
4 [label="x[3] <= -2.946\ngini = 0.017\nsamples = 1297\nvalue = [1286, 11]"] ;
3 -> 4 ;
5 [label="gini = 0.5\nsamples = 4\nvalue = [2, 2]"] ;
4 -> 5 ;
6 [label="x[9] <= -2.443\ngini = 0.014\nsamples = 1293\nvalue = [1284, 9]"] ;
4 -> 6 ;
7 [label="gini = 0.165\nsamples = 11\nvalue = [10, 1]"] ;
6 -> 7 ;
8 [label="x[3] <= -2.217\ngini = 0.012\nsamples = 1282\nvalue = [1274, 8]"] ;
6 -> 8 ;
9 [label="gini = 0.133\nsamples = 14\nvalue = [13, 1]"] ;
8 -> 9 ;
10 [label="x[4] <= 0.294\ngini = 0.011\nsamples = 1268\nvalue = [1261, 7]"] ;
8 -> 10 ;
11 [label="x[1] <= -2.835\ngini = 0.009\nsamples = 1264\nvalue = [1258, 6]"] ;
10 -> 11 ;
12 [label="gini = 0.111\nsamples = 17\nvalue = [16, 1]"] ;
11 -> 12 ;
13 [label="x[9] <= -1.886\ngini = 0.008\nsamples = 1247\nvalue = [1242, 5]"] ;
11 -> 13 ;
14 [label="gini = 0.057\nsamples = 34\nvalue = [33, 1]"] ;
13 -> 14 ;
15 [label="x[5] <= -0.098\ngini = 0.007\nsamples = 1213\nvalue = [1209, 4]"] ;
13 -> 15 ;
16 [label="gini = 0.051\nsamples = 38\nvalue = [37, 1]"] ;
15 -> 16 ;
17 [label="x[7] <= 0.873\ngini = 0.005\nsamples = 1175\nvalue = [1172, 3]"] ;
15 -> 17 ;
18 [label="x[5] <= 0.571\ngini = 0.002\nsamples = 957\nvalue = [956, 1]"] ;
17 -> 18 ;
19 [label="gini = 0.0\nsamples = 837\nvalue = [837, 0]"] ;
18 -> 19 ;
20 [label="x[5] <= 0.572\ngini = 0.017\nsamples = 120\nvalue = [119, 1]"] ;
18 -> 20 ;
21 [label="gini = 0.0\nsamples = 1\nvalue = [0, 1]"] ;
20 -> 21 ;
22 [label="gini = 0.0\nsamples = 119\nvalue = [119, 0]"] ;
20 -> 22 ;
23 [label="x[7] <= 0.873\ngini = 0.018\nsamples = 218\nvalue = [216, 2]"] ;
17 -> 23 ;
24 [label="gini = 0.0\nsamples = 1\nvalue = [0, 1]"] ;
23 -> 24 ;
25 [label="x[6] <= -0.89\ngini = 0.009\nsamples = 217\nvalue = [216, 1]"] ;
23 -> 25 ;
26 [label="gini = 0.043\nsamples = 45\nvalue = [44, 1]"] ;
25 -> 26 ;
27 [label="gini = 0.0\nsamples = 172\nvalue = [172, 0]"] ;
25 -> 27 ;
28 [label="gini = 0.375\nsamples = 4\nvalue = [3, 1]"] ;
10 -> 28 ;
29 [label="gini = 0.375\nsamples = 4\nvalue = [1, 3]"] ;
3 -> 29 ;
30 [label="x[4] <= 0.461\ngini = 0.244\nsamples = 225\nvalue = [193, 32]"] ;
2 -> 30 ;
31 [label="x[2] <= 1.2\ngini = 0.052\nsamples = 187\nvalue = [182, 5]"] ;
30 -> 31 ;
32 [label="gini = 0.0\nsamples = 1\nvalue = [0, 1]"] ;
31 -> 32 ;
33 [label="x[1] <= -0.947\ngini = 0.042\nsamples = 186\nvalue = [182, 4]"] ;
31 -> 33 ;
34 [label="gini = 0.0\nsamples = 164\nvalue = [164, 0]"] ;
33 -> 34 ;
35 [label="gini = 0.298\nsamples = 22\nvalue = [18, 4]"] ;
33 -> 35 ;
36 [label="gini = 0.411\nsamples = 38\nvalue = [11, 27]"] ;
30 -> 36 ;
37 [label="x[2] <= 2.472\ngini = 0.499\nsamples = 1202\nvalue = [621, 581]"] ;
1 -> 37 ;
38 [label="x[9] <= 0.591\ngini = 0.5\nsamples = 971\nvalue = [480, 491]"] ;
37 -> 38 ;
39 [label="x[4] <= 0.188\ngini = 0.499\nsamples = 708\nvalue = [369, 339]"] ;
38 -> 39 ;
40 [label="x[5] <= 0.586\ngini = 0.017\nsamples = 342\nvalue = [339, 3]"] ;
39 -> 40 ;
41 [label="gini = 0.0\nsamples = 1\nvalue = [0, 1]"] ;
40 -> 41 ;
42 [label="x[4] <= 0.036\ngini = 0.012\nsamples = 341\nvalue = [339, 2]"] ;
40 -> 42 ;
43 [label="gini = 0.0\nsamples = 332\nvalue = [332, 0]"] ;
42 -> 43 ;
44 [label="gini = 0.346\nsamples = 9\nvalue = [7, 2]"] ;
42 -> 44 ;
45 [label="x[4] <= 0.43\ngini = 0.15\nsamples = 366\nvalue = [30, 336]"] ;
39 -> 45 ;
46 [label="gini = 0.386\nsamples = 46\nvalue = [12, 34]"] ;
45 -> 46 ;
47 [label="x[4] <= 1.269\ngini = 0.106\nsamples = 320\nvalue = [18, 302]"] ;
45 -> 47 ;
48 [label="x[7] <= 3.137\ngini = 0.101\nsamples = 319\nvalue = [17, 302]"] ;
47 -> 48 ;
49 [label="x[1] <= -1.448\ngini = 0.096\nsamples = 318\nvalue = [16, 302]"] ;
48 -> 49 ;
50 [label="gini = 0.48\nsamples = 5\nvalue = [2, 3]"] ;
49 -> 50 ;
51 [label="x[9] <= 0.572\ngini = 0.085\nsamples = 313\nvalue = [14, 299]"] ;
49 -> 51 ;
52 [label="x[4] <= 0.641\ngini = 0.08\nsamples = 311\nvalue = [13, 298]"] ;
51 -> 52 ;
53 [label="gini = 0.0\nsamples = 100\nvalue = [0, 100]"] ;
52 -> 53 ;
54 [label="x[4] <= 0.642\ngini = 0.116\nsamples = 211\nvalue = [13, 198]"] ;
52 -> 54 ;
55 [label="gini = 0.0\nsamples = 1\nvalue = [1, 0]"] ;
54 -> 55 ;
56 [label="x[8] <= 0.744\ngini = 0.108\nsamples = 210\nvalue = [12, 198]"] ;
54 -> 56 ;
57 [label="x[0] <= -0.118\ngini = 0.069\nsamples = 167\nvalue = [6, 161]"] ;
56 -> 57 ;
58 [label="gini = 0.137\nsamples = 81\nvalue = [6, 75]"] ;
57 -> 58 ;
59 [label="gini = 0.0\nsamples = 86\nvalue = [0, 86]"] ;
57 -> 59 ;
60 [label="gini = 0.24\nsamples = 43\nvalue = [6, 37]"] ;
56 -> 60 ;
61 [label="gini = 0.5\nsamples = 2\nvalue = [1, 1]"] ;
51 -> 61 ;
62 [label="gini = 0.0\nsamples = 1\nvalue = [1, 0]"] ;
48 -> 62 ;
63 [label="gini = 0.0\nsamples = 1\nvalue = [1, 0]"] ;
47 -> 63 ;
64 [label="x[4] <= 0.239\ngini = 0.488\nsamples = 263\nvalue = [111, 152]"] ;
38 -> 64 ;
65 [label="x[1] <= -1.136\ngini = 0.037\nsamples = 107\nvalue = [105, 2]"] ;
64 -> 65 ;
66 [label="x[9] <= 0.932\ngini = 0.019\nsamples = 104\nvalue = [103, 1]"] ;
65 -> 66 ;
67 [label="gini = 0.048\nsamples = 41\nvalue = [40, 1]"] ;
66 -> 67 ;
68 [label="gini = 0.0\nsamples = 63\nvalue = [63, 0]"] ;
66 -> 68 ;
69 [label="gini = 0.444\nsamples = 3\nvalue = [2, 1]"] ;
65 -> 69 ;
70 [label="x[4] <= 0.442\ngini = 0.074\nsamples = 156\nvalue = [6, 150]"] ;
64 -> 70 ;
71 [label="gini = 0.408\nsamples = 14\nvalue = [4, 10]"] ;
70 -> 71 ;
72 [label="x[3] <= -1.315\ngini = 0.028\nsamples = 142\nvalue = [2, 140]"] ;
70 -> 72 ;
73 [label="gini = 0.153\nsamples = 12\nvalue = [1, 11]"] ;
72 -> 73 ;
74 [label="x[7] <= 1.03\ngini = 0.015\nsamples = 130\nvalue = [1, 129]"] ;
72 -> 74 ;
75 [label="gini = 0.0\nsamples = 114\nvalue = [0, 114]"] ;
74 -> 75 ;
76 [label="gini = 0.117\nsamples = 16\nvalue = [1, 15]"] ;
74 -> 76 ;
77 [label="x[3] <= -0.416\ngini = 0.476\nsamples = 231\nvalue = [141, 90]"] ;
37 -> 77 ;
78 [label="gini = 0.496\nsamples = 70\nvalue = [32, 38]"] ;
77 -> 78 ;
79 [label="x[4] <= 0.054\ngini = 0.437\nsamples = 161\nvalue = [109, 52]"] ;
77 -> 79 ;
80 [label="x[2] <= 3.229\ngini = 0.038\nsamples = 102\nvalue = [100, 2]"] ;
79 -> 80 ;
81 [label="gini = 0.0\nsamples = 85\nvalue = [85, 0]"] ;
80 -> 81 ;
82 [label="gini = 0.208\nsamples = 17\nvalue = [15, 2]"] ;
80 -> 82 ;
83 [label="gini = 0.259\nsamples = 59\nvalue = [9, 50]"] ;
79 -> 83 ;
84 [label="x[1] <= 1.112\ngini = 0.463\nsamples = 5272\nvalue = [1916, 3356]"] ;
0 -> 84 [labeldistance=2.5, labelangle=-45, headlabel="False"] ;
85 [label="x[4] <= 0.405\ngini = 0.495\nsamples = 3586\nvalue = [1622, 1964]"] ;
84 -> 85 ;
86 [label="x[5] <= 0.292\ngini = 0.034\nsamples = 1495\nvalue = [1469, 26]"] ;
85 -> 86 ;
87 [label="x[2] <= 0.346\ngini = 0.027\nsamples = 1487\nvalue = [1467, 20]"] ;
86 -> 87 ;
88 [label="x[9] <= 2.247\ngini = 0.017\nsamples = 1435\nvalue = [1423, 12]"] ;
87 -> 88 ;
89 [label="x[4] <= 0.328\ngini = 0.014\nsamples = 1424\nvalue = [1414, 10]"] ;
88 -> 89 ;
90 [label="x[8] <= 2.328\ngini = 0.011\nsamples = 1405\nvalue = [1397, 8]"] ;
89 -> 90 ;
91 [label="x[4] <= -0.617\ngini = 0.01\nsamples = 1398\nvalue = [1391, 7]"] ;
90 -> 91 ;
92 [label="x[4] <= -0.617\ngini = 0.016\nsamples = 894\nvalue = [887, 7]"] ;
91 -> 92 ;
93 [label="x[2] <= -0.729\ngini = 0.013\nsamples = 893\nvalue = [887, 6]"] ;
92 -> 93 ;
94 [label="x[7] <= 0.411\ngini = 0.008\nsamples = 706\nvalue = [703, 3]"] ;
93 -> 94 ;
95 [label="gini = 0.0\nsamples = 473\nvalue = [473, 0]"] ;
94 -> 95 ;
96 [label="x[4] <= -1.03\ngini = 0.025\nsamples = 233\nvalue = [230, 3]"] ;
94 -> 96 ;
97 [label="x[9] <= 1.392\ngini = 0.046\nsamples = 127\nvalue = [124, 3]"] ;
96 -> 97 ;
98 [label="x[4] <= -1.031\ngini = 0.033\nsamples = 121\nvalue = [119, 2]"] ;
97 -> 98 ;
99 [label="x[1] <= 0.279\ngini = 0.017\nsamples = 120\nvalue = [119, 1]"] ;
98 -> 99 ;
100 [label="gini = 0.0\nsamples = 98\nvalue = [98, 0]"] ;
99 -> 100 ;
101 [label="gini = 0.087\nsamples = 22\nvalue = [21, 1]"] ;
99 -> 101 ;
102 [label="gini = 0.0\nsamples = 1\nvalue = [0, 1]"] ;
98 -> 102 ;
103 [label="gini = 0.278\nsamples = 6\nvalue = [5, 1]"] ;
97 -> 103 ;
104 [label="gini = 0.0\nsamples = 106\nvalue = [106, 0]"] ;
96 -> 104 ;
105 [label="x[2] <= -0.727\ngini = 0.032\nsamples = 187\nvalue = [184, 3]"] ;
93 -> 105 ;
106 [label="gini = 0.0\nsamples = 1\nvalue = [0, 1]"] ;
105 -> 106 ;
107 [label="x[2] <= -0.713\ngini = 0.021\nsamples = 186\nvalue = [184, 2]"] ;
105 -> 107 ;
108 [label="gini = 0.165\nsamples = 11\nvalue = [10, 1]"] ;
107 -> 108 ;
109 [label="x[9] <= 0.821\ngini = 0.011\nsamples = 175\nvalue = [174, 1]"] ;
107 -> 109 ;
110 [label="gini = 0.0\nsamples = 141\nvalue = [141, 0]"] ;
109 -> 110 ;
111 [label="gini = 0.057\nsamples = 34\nvalue = [33, 1]"] ;
109 -> 111 ;
112 [label="gini = 0.0\nsamples = 1\nvalue = [0, 1]"] ;
92 -> 112 ;
113 [label="gini = 0.0\nsamples = 504\nvalue = [504, 0]"] ;
91 -> 113 ;
114 [label="gini = 0.245\nsamples = 7\nvalue = [6, 1]"] ;
90 -> 114 ;
115 [label="gini = 0.188\nsamples = 19\nvalue = [17, 2]"] ;
89 -> 115 ;
116 [label="gini = 0.298\nsamples = 11\nvalue = [9, 2]"] ;
88 -> 116 ;
117 [label="gini = 0.26\nsamples = 52\nvalue = [44, 8]"] ;
87 -> 117 ;
118 [label="gini = 0.375\nsamples = 8\nvalue = [2, 6]"] ;
86 -> 118 ;
119 [label="x[4] <= 1.756\ngini = 0.136\nsamples = 2091\nvalue = [153, 1938]"] ;
85 -> 119 ;
120 [label="x[2] <= -0.89\ngini = 0.13\nsamples = 2084\nvalue = [146, 1938]"] ;
119 -> 120 ;
121 [label="gini = 0.32\nsamples = 5\nvalue = [4, 1]"] ;
120 -> 121 ;
122 [label="x[2] <= 1.622\ngini = 0.127\nsamples = 2079\nvalue = [142, 1937]"] ;
120 -> 122 ;
123 [label="x[3] <= 2.475\ngini = 0.124\nsamples = 2067\nvalue = [137, 1930]"] ;
122 -> 123 ;
124 [label="x[4] <= 0.541\ngini = 0.12\nsamples = 2050\nvalue = [132, 1918]"] ;
123 -> 124 ;
125 [label="gini = 0.366\nsamples = 87\nvalue = [21, 66]"] ;
124 -> 125 ;
126 [label="x[9] <= 3.202\ngini = 0.107\nsamples = 1963\nvalue = [111, 1852]"] ;
124 -> 126 ;
127 [label="x[1] <= 1.101\ngini = 0.106\nsamples = 1962\nvalue = [110, 1852]"] ;
126 -> 127 ;
128 [label="x[0] <= 0.758\ngini = 0.104\nsamples = 1958\nvalue = [108, 1850]"] ;
127 -> 128 ;
129 [label="x[1] <= 0.761\ngini = 0.091\nsamples = 1534\nvalue = [73, 1461]"] ;
128 -> 129 ;
130 [label="x[7] <= -2.73\ngini = 0.106\nsamples = 1195\nvalue = [67, 1128]"] ;
129 -> 130 ;
131 [label="gini = 0.0\nsamples = 1\nvalue = [1, 0]"] ;
130 -> 131 ;
132 [label="x[4] <= 1.606\ngini = 0.104\nsamples = 1194\nvalue = [66, 1128]"] ;
130 -> 132 ;
133 [label="x[1] <= 0.761\ngini = 0.1\nsamples = 1189\nvalue = [63, 1126]"] ;
132 -> 133 ;
134 [label="x[2] <= 0.581\ngini = 0.099\nsamples = 1188\nvalue = [62, 1126]"] ;
133 -> 134 ;
135 [label="x[5] <= 0.147\ngini = 0.14\nsamples = 528\nvalue = [40, 488]"] ;
134 -> 135 ;
136 [label="gini = 0.129\nsamples = 520\nvalue = [36, 484]"] ;
135 -> 136 ;
137 [label="gini = 0.5\nsamples = 8\nvalue = [4, 4]"] ;
135 -> 137 ;
138 [label="x[3] <= -0.562\ngini = 0.064\nsamples = 660\nvalue = [22, 638]"] ;
134 -> 138 ;
139 [label="gini = 0.131\nsamples = 184\nvalue = [13, 171]"] ;
138 -> 139 ;
140 [label="gini = 0.037\nsamples = 476\nvalue = [9, 467]"] ;
138 -> 140 ;
141 [label="gini = 0.0\nsamples = 1\nvalue = [1, 0]"] ;
133 -> 141 ;
142 [label="gini = 0.48\nsamples = 5\nvalue = [3, 2]"] ;
132 -> 142 ;
143 [label="x[7] <= 3.382\ngini = 0.035\nsamples = 339\nvalue = [6, 333]"] ;
129 -> 143 ;
144 [label="x[9] <= -2.484\ngini = 0.029\nsamples = 338\nvalue = [5, 333]"] ;
143 -> 144 ;
145 [label="gini = 0.444\nsamples = 3\nvalue = [1, 2]"] ;
144 -> 145 ;
146 [label="x[2] <= -0.793\ngini = 0.024\nsamples = 335\nvalue = [4, 331]"] ;
144 -> 146 ;
147 [label="gini = 0.375\nsamples = 4\nvalue = [1, 3]"] ;
146 -> 147 ;
148 [label="x[9] <= 0.294\ngini = 0.018\nsamples = 331\nvalue = [3, 328]"] ;
146 -> 148 ;
149 [label="gini = 0.0\nsamples = 195\nvalue = [0, 195]"] ;
148 -> 149 ;
150 [label="x[9] <= 0.296\ngini = 0.043\nsamples = 136\nvalue = [3, 133]"] ;
148 -> 150 ;
151 [label="gini = 0.0\nsamples = 1\nvalue = [1, 0]"] ;
150 -> 151 ;
152 [label="gini = 0.029\nsamples = 135\nvalue = [2, 133]"] ;
150 -> 152 ;
153 [label="gini = 0.0\nsamples = 1\nvalue = [1, 0]"] ;
143 -> 153 ;
154 [label="x[9] <= 0.697\ngini = 0.151\nsamples = 424\nvalue = [35, 389]"] ;
128 -> 154 ;
155 [label="x[9] <= 0.694\ngini = 0.18\nsamples = 321\nvalue = [32, 289]"] ;
154 -> 155 ;
156 [label="x[4] <= 0.683\ngini = 0.17\nsamples = 319\nvalue = [30, 289]"] ;
155 -> 156 ;
157 [label="gini = 0.375\nsamples = 32\nvalue = [8, 24]"] ;
156 -> 157 ;
158 [label="x[1] <= 1.097\ngini = 0.142\nsamples = 287\nvalue = [22, 265]"] ;
156 -> 158 ;
159 [label="x[9] <= 0.632\ngini = 0.136\nsamples = 286\nvalue = [21, 265]"] ;
158 -> 159 ;
160 [label="x[7] <= 0.954\ngini = 0.126\nsamples = 281\nvalue = [19, 262]"] ;
159 -> 160 ;
161 [label="gini = 0.098\nsamples = 231\nvalue = [12, 219]"] ;
160 -> 161 ;
162 [label="gini = 0.241\nsamples = 50\nvalue = [7, 43]"] ;
160 -> 162 ;
163 [label="gini = 0.48\nsamples = 5\nvalue = [2, 3]"] ;
159 -> 163 ;
164 [label="gini = 0.0\nsamples = 1\nvalue = [1, 0]"] ;
158 -> 164 ;
165 [label="gini = 0.0\nsamples = 2\nvalue = [2, 0]"] ;
155 -> 165 ;
166 [label="x[3] <= -1.883\ngini = 0.057\nsamples = 103\nvalue = [3, 100]"] ;
154 -> 166 ;
167 [label="gini = 0.5\nsamples = 2\nvalue = [1, 1]"] ;
166 -> 167 ;
168 [label="x[4] <= 0.632\ngini = 0.039\nsamples = 101\nvalue = [2, 99]"] ;
166 -> 168 ;
169 [label="gini = 0.5\nsamples = 2\nvalue = [1, 1]"] ;
168 -> 169 ;
170 [label="gini = 0.02\nsamples = 99\nvalue = [1, 98]"] ;
168 -> 170 ;
171 [label="gini = 0.5\nsamples = 4\nvalue = [2, 2]"] ;
127 -> 171 ;
172 [label="gini = 0.0\nsamples = 1\nvalue = [1, 0]"] ;
126 -> 172 ;
173 [label="gini = 0.415\nsamples = 17\nvalue = [5, 12]"] ;
123 -> 173 ;
174 [label="gini = 0.486\nsamples = 12\nvalue = [5, 7]"] ;
122 -> 174 ;
175 [label="gini = 0.0\nsamples = 7\nvalue = [7, 0]"] ;
119 -> 175 ;
176 [label="x[4] <= 0.688\ngini = 0.288\nsamples = 1686\nvalue = [294, 1392]"] ;
84 -> 176 ;
177 [label="x[5] <= -0.568\ngini = 0.016\nsamples = 251\nvalue = [249, 2]"] ;
176 -> 177 ;
178 [label="gini = 0.0\nsamples = 247\nvalue = [247, 0]"] ;
177 -> 178 ;
179 [label="gini = 0.5\nsamples = 4\nvalue = [2, 2]"] ;
177 -> 179 ;
180 [label="x[2] <= 0.364\ngini = 0.061\nsamples = 1435\nvalue = [45, 1390]"] ;
176 -> 180 ;
181 [label="x[5] <= -1.502\ngini = 0.059\nsamples = 1434\nvalue = [44, 1390]"] ;
180 -> 181 ;
182 [label="gini = 0.305\nsamples = 16\nvalue = [3, 13]"] ;
181 -> 182 ;
183 [label="x[2] <= -2.029\ngini = 0.056\nsamples = 1418\nvalue = [41, 1377]"] ;
181 -> 183 ;
184 [label="x[4] <= 0.997\ngini = 0.12\nsamples = 249\nvalue = [16, 233]"] ;
183 -> 184 ;
185 [label="gini = 0.0\nsamples = 14\nvalue = [14, 0]"] ;
184 -> 185 ;
186 [label="x[0] <= -1.868\ngini = 0.017\nsamples = 235\nvalue = [2, 233]"] ;
184 -> 186 ;
187 [label="gini = 0.375\nsamples = 4\nvalue = [1, 3]"] ;
186 -> 187 ;
188 [label="x[2] <= -2.11\ngini = 0.009\nsamples = 231\nvalue = [1, 230]"] ;
186 -> 188 ;
189 [label="gini = 0.0\nsamples = 200\nvalue = [0, 200]"] ;
188 -> 189 ;
190 [label="gini = 0.062\nsamples = 31\nvalue = [1, 30]"] ;
188 -> 190 ;
191 [label="x[1] <= 2.56\ngini = 0.042\nsamples = 1169\nvalue = [25, 1144]"] ;
183 -> 191 ;
192 [label="x[4] <= 1.779\ngini = 0.04\nsamples = 1167\nvalue = [24, 1143]"] ;
191 -> 192 ;
193 [label="x[2] <= -0.984\ngini = 0.032\nsamples = 1150\nvalue = [19, 1131]"] ;
192 -> 193 ;
194 [label="x[4] <= 0.809\ngini = 0.018\nsamples = 758\nvalue = [7, 751]"] ;
193 -> 194 ;
195 [label="gini = 0.231\nsamples = 15\nvalue = [2, 13]"] ;
194 -> 195 ;
196 [label="x[2] <= -1.326\ngini = 0.013\nsamples = 743\nvalue = [5, 738]"] ;
194 -> 196 ;
197 [label="x[5] <= -0.664\ngini = 0.022\nsamples = 444\nvalue = [5, 439]"] ;
196 -> 197 ;
198 [label="x[5] <= -0.783\ngini = 0.018\nsamples = 437\nvalue = [4, 433]"] ;
197 -> 198 ;
199 [label="gini = 0.0\nsamples = 254\nvalue = [0, 254]"] ;
198 -> 199 ;
200 [label="x[6] <= -0.051\ngini = 0.043\nsamples = 183\nvalue = [4, 179]"] ;
198 -> 200 ;
201 [label="gini = 0.0\nsamples = 83\nvalue = [0, 83]"] ;
200 -> 201 ;
202 [label="x[5] <= -0.782\ngini = 0.077\nsamples = 100\nvalue = [4, 96]"] ;
200 -> 202 ;
203 [label="gini = 0.0\nsamples = 1\nvalue = [1, 0]"] ;
202 -> 203 ;
204 [label="gini = 0.059\nsamples = 99\nvalue = [3, 96]"] ;
202 -> 204 ;
205 [label="gini = 0.245\nsamples = 7\nvalue = [1, 6]"] ;
197 -> 205 ;
206 [label="gini = 0.0\nsamples = 299\nvalue = [0, 299]"] ;
196 -> 206 ;
207 [label="x[6] <= 0.616\ngini = 0.059\nsamples = 392\nvalue = [12, 380]"] ;
193 -> 207 ;
208 [label="x[4] <= 0.744\ngini = 0.029\nsamples = 276\nvalue = [4, 272]"] ;
207 -> 208 ;
209 [label="gini = 0.5\nsamples = 2\nvalue = [1, 1]"] ;
208 -> 209 ;
210 [label="x[5] <= -0.506\ngini = 0.022\nsamples = 274\nvalue = [3, 271]"] ;
208 -> 210 ;
211 [label="gini = 0.124\nsamples = 30\nvalue = [2, 28]"] ;
210 -> 211 ;
212 [label="x[1] <= 1.566\ngini = 0.008\nsamples = 244\nvalue = [1, 243]"] ;
210 -> 212 ;
213 [label="gini = 0.0\nsamples = 240\nvalue = [0, 240]"] ;
212 -> 213 ;
214 [label="gini = 0.375\nsamples = 4\nvalue = [1, 3]"] ;
212 -> 214 ;
215 [label="x[2] <= -0.983\ngini = 0.128\nsamples = 116\nvalue = [8, 108]"] ;
207 -> 215 ;
216 [label="gini = 0.0\nsamples = 1\nvalue = [1, 0]"] ;
215 -> 216 ;
217 [label="x[6] <= 0.621\ngini = 0.114\nsamples = 115\nvalue = [7, 108]"] ;
215 -> 217 ;
218 [label="gini = 0.0\nsamples = 1\nvalue = [1, 0]"] ;
217 -> 218 ;
219 [label="x[1] <= 1.35\ngini = 0.1\nsamples = 114\nvalue = [6, 108]"] ;
217 -> 219 ;
220 [label="gini = 0.0\nsamples = 79\nvalue = [0, 79]"] ;
219 -> 220 ;
221 [label="gini = 0.284\nsamples = 35\nvalue = [6, 29]"] ;
219 -> 221 ;
222 [label="gini = 0.415\nsamples = 17\nvalue = [5, 12]"] ;
192 -> 222 ;
223 [label="gini = 0.5\nsamples = 2\nvalue = [1, 1]"] ;
191 -> 223 ;
224 [label="gini = 0.0\nsamples = 1\nvalue = [1, 0]"] ;
180 -> 224 ;
}