digraph Tree {
node [shape=box, fontname="helvetica"] ;
edge [fontname="helvetica"] ;
0 [label="x[1] <= -0.168\ngini = 0.5\nsamples = 8000\nvalue = [4021, 3979]"] ;
1 [label="x[5] <= 0.449\ngini = 0.165\nsamples = 4201\nvalue = [3819, 382]"] ;
0 -> 1 [labeldistance=2.5, labelangle=45, headlabel="True"] ;
2 [label="x[9] <= 2.184\ngini = 0.148\nsamples = 4152\nvalue = [3819, 333]"] ;
1 -> 2 ;
3 [label="x[1] <= -0.349\ngini = 0.104\nsamples = 3908\nvalue = [3693, 215]"] ;
2 -> 3 ;
4 [label="x[1] <= -0.682\ngini = 0.072\nsamples = 3663\nvalue = [3526, 137]"] ;
3 -> 4 ;
5 [label="x[5] <= 0.412\ngini = 0.047\nsamples = 2976\nvalue = [2905, 71]"] ;
4 -> 5 ;
6 [label="x[8] <= -3.37\ngini = 0.045\nsamples = 2969\nvalue = [2900, 69]"] ;
5 -> 6 ;
7 [label="x[8] <= -3.539\ngini = 0.5\nsamples = 2\nvalue = [1, 1]"] ;
6 -> 7 ;
8 [label="gini = 0.0\nsamples = 1\nvalue = [1, 0]"] ;
7 -> 8 ;
9 [label="gini = 0.0\nsamples = 1\nvalue = [0, 1]"] ;
7 -> 9 ;
10 [label="x[9] <= 0.634\ngini = 0.045\nsamples = 2967\nvalue = [2899, 68]"] ;
6 -> 10 ;
11 [label="x[5] <= -0.669\ngini = 0.062\nsamples = 1741\nvalue = [1685, 56]"] ;
10 -> 11 ;
12 [label="gini = 0.0\nsamples = 8\nvalue = [0, 8]"] ;
11 -> 12 ;
13 [label="x[5] <= 0.084\ngini = 0.054\nsamples = 1733\nvalue = [1685, 48]"] ;
11 -> 13 ;
14 [label="x[3] <= -0.042\ngini = 0.146\nsamples = 367\nvalue = [338, 29]"] ;
13 -> 14 ;
15 [label="x[1] <= -0.916\ngini = 0.05\nsamples = 275\nvalue = [268, 7]"] ;
14 -> 15 ;
16 [label="x[4] <= 0.054\ngini = 0.375\nsamples = 4\nvalue = [1, 3]"] ;
15 -> 16 ;
17 [label="gini = 0.0\nsamples = 3\nvalue = [0, 3]"] ;
16 -> 17 ;
18 [label="gini = 0.0\nsamples = 1\nvalue = [1, 0]"] ;
16 -> 18 ;
19 [label="x[7] <= 2.538\ngini = 0.029\nsamples = 271\nvalue = [267, 4]"] ;
15 -> 19 ;
20 [label="x[1] <= -0.84\ngini = 0.022\nsamples = 270\nvalue = [267, 3]"] ;
19 -> 20 ;
21 [label="x[3] <= -0.167\ngini = 0.17\nsamples = 32\nvalue = [29, 3]"] ;
20 -> 21 ;
22 [label="x[1] <= -0.845\ngini = 0.064\nsamples = 30\nvalue = [29, 1]"] ;
21 -> 22 ;
23 [label="gini = 0.0\nsamples = 29\nvalue = [29, 0]"] ;
22 -> 23 ;
24 [label="gini = 0.0\nsamples = 1\nvalue = [0, 1]"] ;
22 -> 24 ;
25 [label="gini = 0.0\nsamples = 2\nvalue = [0, 2]"] ;
21 -> 25 ;
26 [label="gini = 0.0\nsamples = 238\nvalue = [238, 0]"] ;
20 -> 26 ;
27 [label="gini = 0.0\nsamples = 1\nvalue = [0, 1]"] ;
19 -> 27 ;
28 [label="x[5] <= -0.067\ngini = 0.364\nsamples = 92\nvalue = [70, 22]"] ;
14 -> 28 ;
29 [label="gini = 0.0\nsamples = 15\nvalue = [0, 15]"] ;
28 -> 29 ;
30 [label="x[5] <= 0.08\ngini = 0.165\nsamples = 77\nvalue = [70, 7]"] ;
28 -> 30 ;
31 [label="x[0] <= -1.535\ngini = 0.126\nsamples = 74\nvalue = [69, 5]"] ;
30 -> 31 ;
32 [label="x[7] <= 0.11\ngini = 0.5\nsamples = 4\nvalue = [2, 2]"] ;
31 -> 32 ;
33 [label="gini = 0.0\nsamples = 2\nvalue = [0, 2]"] ;
32 -> 33 ;
34 [label="gini = 0.0\nsamples = 2\nvalue = [2, 0]"] ;
32 -> 34 ;
35 [label="x[6] <= 1.183\ngini = 0.082\nsamples = 70\nvalue = [67, 3]"] ;
31 -> 35 ;
36 [label="x[2] <= -0.485\ngini = 0.059\nsamples = 66\nvalue = [64, 2]"] ;
35 -> 36 ;
37 [label="x[2] <= -0.487\ngini = 0.198\nsamples = 18\nvalue = [16, 2]"] ;
36 -> 37 ;
38 [label="x[4] <= 0.993\ngini = 0.111\nsamples = 17\nvalue = [16, 1]"] ;
37 -> 38 ;
39 [label="gini = 0.0\nsamples = 14\nvalue = [14, 0]"] ;
38 -> 39 ;
40 [label="x[4] <= 1.079\ngini = 0.444\nsamples = 3\nvalue = [2, 1]"] ;
38 -> 40 ;
41 [label="gini = 0.0\nsamples = 1\nvalue = [0, 1]"] ;
40 -> 41 ;
42 [label="gini = 0.0\nsamples = 2\nvalue = [2, 0]"] ;
40 -> 42 ;
43 [label="gini = 0.0\nsamples = 1\nvalue = [0, 1]"] ;
37 -> 43 ;
44 [label="gini = 0.0\nsamples = 48\nvalue = [48, 0]"] ;
36 -> 44 ;
45 [label="x[5] <= 0.041\ngini = 0.375\nsamples = 4\nvalue = [3, 1]"] ;
35 -> 45 ;
46 [label="gini = 0.0\nsamples = 3\nvalue = [3, 0]"] ;
45 -> 46 ;
47 [label="gini = 0.0\nsamples = 1\nvalue = [0, 1]"] ;
45 -> 47 ;
48 [label="x[2] <= 1.069\ngini = 0.444\nsamples = 3\nvalue = [1, 2]"] ;
30 -> 48 ;
49 [label="gini = 0.0\nsamples = 2\nvalue = [0, 2]"] ;
48 -> 49 ;
50 [label="gini = 0.0\nsamples = 1\nvalue = [1, 0]"] ;
48 -> 50 ;
51 [label="x[1] <= -0.976\ngini = 0.027\nsamples = 1366\nvalue = [1347, 19]"] ;
13 -> 51 ;
52 [label="x[7] <= 2.137\ngini = 0.01\nsamples = 1003\nvalue = [998, 5]"] ;
51 -> 52 ;
53 [label="x[9] <= -0.907\ngini = 0.008\nsamples = 983\nvalue = [979, 4]"] ;
52 -> 53 ;
54 [label="x[0] <= 0.404\ngini = 0.006\nsamples = 958\nvalue = [955, 3]"] ;
53 -> 54 ;
55 [label="gini = 0.0\nsamples = 640\nvalue = [640, 0]"] ;
54 -> 55 ;
56 [label="x[0] <= 0.404\ngini = 0.019\nsamples = 318\nvalue = [315, 3]"] ;
54 -> 56 ;
57 [label="gini = 0.0\nsamples = 1\nvalue = [0, 1]"] ;
56 -> 57 ;
58 [label="x[2] <= -1.245\ngini = 0.013\nsamples = 317\nvalue = [315, 2]"] ;
56 -> 58 ;
59 [label="x[2] <= -1.31\ngini = 0.059\nsamples = 33\nvalue = [32, 1]"] ;
58 -> 59 ;
60 [label="gini = 0.0\nsamples = 32\nvalue = [32, 0]"] ;
59 -> 60 ;
61 [label="gini = 0.0\nsamples = 1\nvalue = [0, 1]"] ;
59 -> 61 ;
62 [label="x[5] <= 0.16\ngini = 0.007\nsamples = 284\nvalue = [283, 1]"] ;
58 -> 62 ;
63 [label="x[5] <= 0.16\ngini = 0.048\nsamples = 41\nvalue = [40, 1]"] ;
62 -> 63 ;
64 [label="gini = 0.0\nsamples = 40\nvalue = [40, 0]"] ;
63 -> 64 ;
65 [label="gini = 0.0\nsamples = 1\nvalue = [0, 1]"] ;
63 -> 65 ;
66 [label="gini = 0.0\nsamples = 243\nvalue = [243, 0]"] ;
62 -> 66 ;
67 [label="x[3] <= 0.315\ngini = 0.077\nsamples = 25\nvalue = [24, 1]"] ;
53 -> 67 ;
68 [label="gini = 0.0\nsamples = 24\nvalue = [24, 0]"] ;
67 -> 68 ;
69 [label="gini = 0.0\nsamples = 1\nvalue = [0, 1]"] ;
67 -> 69 ;
70 [label="x[1] <= -1.103\ngini = 0.095\nsamples = 20\nvalue = [19, 1]"] ;
52 -> 70 ;
71 [label="gini = 0.0\nsamples = 19\nvalue = [19, 0]"] ;
70 -> 71 ;
72 [label="gini = 0.0\nsamples = 1\nvalue = [0, 1]"] ;
70 -> 72 ;
73 [label="x[1] <= -0.975\ngini = 0.074\nsamples = 363\nvalue = [349, 14]"] ;
51 -> 73 ;
74 [label="gini = 0.0\nsamples = 1\nvalue = [0, 1]"] ;
73 -> 74 ;
75 [label="x[5] <= 0.375\ngini = 0.069\nsamples = 362\nvalue = [349, 13]"] ;
73 -> 75 ;
76 [label="x[9] <= -0.822\ngini = 0.06\nsamples = 358\nvalue = [347, 11]"] ;
75 -> 76 ;
77 [label="x[9] <= -0.823\ngini = 0.083\nsamples = 252\nvalue = [241, 11]"] ;
76 -> 77 ;
78 [label="x[3] <= 0.298\ngini = 0.077\nsamples = 251\nvalue = [241, 10]"] ;
77 -> 78 ;
79 [label="x[8] <= -0.287\ngini = 0.291\nsamples = 17\nvalue = [14, 3]"] ;
78 -> 79 ;
80 [label="x[9] <= -0.834\ngini = 0.49\nsamples = 7\nvalue = [4, 3]"] ;
79 -> 80 ;
81 [label="gini = 0.0\nsamples = 3\nvalue = [0, 3]"] ;
80 -> 81 ;
82 [label="gini = 0.0\nsamples = 4\nvalue = [4, 0]"] ;
80 -> 82 ;
83 [label="gini = 0.0\nsamples = 10\nvalue = [10, 0]"] ;
79 -> 83 ;
84 [label="x[7] <= 1.598\ngini = 0.058\nsamples = 234\nvalue = [227, 7]"] ;
78 -> 84 ;
85 [label="x[9] <= -1.081\ngini = 0.043\nsamples = 226\nvalue = [221, 5]"] ;
84 -> 85 ;
86 [label="x[2] <= 0.859\ngini = 0.153\nsamples = 36\nvalue = [33, 3]"] ;
85 -> 86 ;
87 [label="x[2] <= 0.45\ngini = 0.059\nsamples = 33\nvalue = [32, 1]"] ;
86 -> 87 ;
88 [label="gini = 0.0\nsamples = 28\nvalue = [28, 0]"] ;
87 -> 88 ;
89 [label="x[0] <= 0.152\ngini = 0.32\nsamples = 5\nvalue = [4, 1]"] ;
87 -> 89 ;
90 [label="gini = 0.0\nsamples = 1\nvalue = [0, 1]"] ;
89 -> 90 ;
91 [label="gini = 0.0\nsamples = 4\nvalue = [4, 0]"] ;
89 -> 91 ;
92 [label="x[0] <= -1.123\ngini = 0.444\nsamples = 3\nvalue = [1, 2]"] ;
86 -> 92 ;
93 [label="gini = 0.0\nsamples = 1\nvalue = [1, 0]"] ;
92 -> 93 ;
94 [label="gini = 0.0\nsamples = 2\nvalue = [0, 2]"] ;
92 -> 94 ;
95 [label="x[8] <= 0.615\ngini = 0.021\nsamples = 190\nvalue = [188, 2]"] ;
85 -> 95 ;
96 [label="gini = 0.0\nsamples = 136\nvalue = [136, 0]"] ;
95 -> 96 ;
97 [label="x[8] <= 0.617\ngini = 0.071\nsamples = 54\nvalue = [52, 2]"] ;
95 -> 97 ;
98 [label="gini = 0.0\nsamples = 1\nvalue = [0, 1]"] ;
97 -> 98 ;
99 [label="x[4] <= -0.634\ngini = 0.037\nsamples = 53\nvalue = [52, 1]"] ;
97 -> 99 ;
100 [label="x[0] <= -0.657\ngini = 0.18\nsamples = 10\nvalue = [9, 1]"] ;
99 -> 100 ;
101 [label="gini = 0.0\nsamples = 1\nvalue = [0, 1]"] ;
100 -> 101 ;
102 [label="gini = 0.0\nsamples = 9\nvalue = [9, 0]"] ;
100 -> 102 ;
103 [label="gini = 0.0\nsamples = 43\nvalue = [43, 0]"] ;
99 -> 103 ;
104 [label="x[7] <= 1.726\ngini = 0.375\nsamples = 8\nvalue = [6, 2]"] ;
84 -> 104 ;
105 [label="gini = 0.0\nsamples = 2\nvalue = [0, 2]"] ;
104 -> 105 ;
106 [label="gini = 0.0\nsamples = 6\nvalue = [6, 0]"] ;
104 -> 106 ;
107 [label="gini = 0.0\nsamples = 1\nvalue = [0, 1]"] ;
77 -> 107 ;
108 [label="gini = 0.0\nsamples = 106\nvalue = [106, 0]"] ;
76 -> 108 ;
109 [label="x[1] <= -0.89\ngini = 0.5\nsamples = 4\nvalue = [2, 2]"] ;
75 -> 109 ;
110 [label="gini = 0.0\nsamples = 2\nvalue = [2, 0]"] ;
109 -> 110 ;
111 [label="gini = 0.0\nsamples = 2\nvalue = [0, 2]"] ;
109 -> 111 ;
112 [label="x[4] <= 2.577\ngini = 0.019\nsamples = 1226\nvalue = [1214, 12]"] ;
10 -> 112 ;
113 [label="x[1] <= -0.73\ngini = 0.016\nsamples = 1223\nvalue = [1213, 10]"] ;
112 -> 113 ;
114 [label="x[7] <= 1.745\ngini = 0.015\nsamples = 1221\nvalue = [1212, 9]"] ;
113 -> 114 ;
115 [label="x[0] <= 2.376\ngini = 0.01\nsamples = 1179\nvalue = [1173, 6]"] ;
114 -> 115 ;
116 [label="x[5] <= -0.772\ngini = 0.009\nsamples = 1165\nvalue = [1160, 5]"] ;
115 -> 116 ;
117 [label="x[1] <= -1.348\ngini = 0.004\nsamples = 1009\nvalue = [1007, 2]"] ;
116 -> 117 ;
118 [label="x[3] <= -0.623\ngini = 0.023\nsamples = 172\nvalue = [170, 2]"] ;
117 -> 118 ;
119 [label="x[8] <= 1.04\ngini = 0.012\nsamples = 171\nvalue = [170, 1]"] ;
118 -> 119 ;
120 [label="gini = 0.0\nsamples = 154\nvalue = [154, 0]"] ;
119 -> 120 ;
121 [label="x[8] <= 1.059\ngini = 0.111\nsamples = 17\nvalue = [16, 1]"] ;
119 -> 121 ;
122 [label="gini = 0.0\nsamples = 1\nvalue = [0, 1]"] ;
121 -> 122 ;
123 [label="gini = 0.0\nsamples = 16\nvalue = [16, 0]"] ;
121 -> 123 ;
124 [label="gini = 0.0\nsamples = 1\nvalue = [0, 1]"] ;
118 -> 124 ;
125 [label="gini = 0.0\nsamples = 837\nvalue = [837, 0]"] ;
117 -> 125 ;
126 [label="x[5] <= -0.772\ngini = 0.038\nsamples = 156\nvalue = [153, 3]"] ;
116 -> 126 ;
127 [label="gini = 0.0\nsamples = 1\nvalue = [0, 1]"] ;
126 -> 127 ;
128 [label="x[2] <= -1.906\ngini = 0.025\nsamples = 155\nvalue = [153, 2]"] ;
126 -> 128 ;
129 [label="x[2] <= -2.078\ngini = 0.375\nsamples = 4\nvalue = [3, 1]"] ;
128 -> 129 ;
130 [label="gini = 0.0\nsamples = 3\nvalue = [3, 0]"] ;
129 -> 130 ;
131 [label="gini = 0.0\nsamples = 1\nvalue = [0, 1]"] ;
129 -> 131 ;
132 [label="x[2] <= 0.991\ngini = 0.013\nsamples = 151\nvalue = [150, 1]"] ;
128 -> 132 ;
133 [label="gini = 0.0\nsamples = 128\nvalue = [128, 0]"] ;
132 -> 133 ;
134 [label="x[2] <= 1.003\ngini = 0.083\nsamples = 23\nvalue = [22, 1]"] ;
132 -> 134 ;
135 [label="gini = 0.0\nsamples = 1\nvalue = [0, 1]"] ;
134 -> 135 ;
136 [label="gini = 0.0\nsamples = 22\nvalue = [22, 0]"] ;
134 -> 136 ;
137 [label="x[0] <= 2.394\ngini = 0.133\nsamples = 14\nvalue = [13, 1]"] ;
115 -> 137 ;
138 [label="gini = 0.0\nsamples = 1\nvalue = [0, 1]"] ;
137 -> 138 ;
139 [label="gini = 0.0\nsamples = 13\nvalue = [13, 0]"] ;
137 -> 139 ;
140 [label="x[7] <= 1.754\ngini = 0.133\nsamples = 42\nvalue = [39, 3]"] ;
114 -> 140 ;
141 [label="gini = 0.0\nsamples = 1\nvalue = [0, 1]"] ;
140 -> 141 ;
142 [label="x[4] <= 0.593\ngini = 0.093\nsamples = 41\nvalue = [39, 2]"] ;
140 -> 142 ;
143 [label="gini = 0.0\nsamples = 28\nvalue = [28, 0]"] ;
142 -> 143 ;
144 [label="x[4] <= 0.66\ngini = 0.26\nsamples = 13\nvalue = [11, 2]"] ;
142 -> 144 ;
145 [label="gini = 0.0\nsamples = 2\nvalue = [0, 2]"] ;
144 -> 145 ;
146 [label="gini = 0.0\nsamples = 11\nvalue = [11, 0]"] ;
144 -> 146 ;
147 [label="x[7] <= -0.905\ngini = 0.5\nsamples = 2\nvalue = [1, 1]"] ;
113 -> 147 ;
148 [label="gini = 0.0\nsamples = 1\nvalue = [0, 1]"] ;
147 -> 148 ;
149 [label="gini = 0.0\nsamples = 1\nvalue = [1, 0]"] ;
147 -> 149 ;
150 [label="x[1] <= -1.129\ngini = 0.444\nsamples = 3\nvalue = [1, 2]"] ;
112 -> 150 ;
151 [label="gini = 0.0\nsamples = 1\nvalue = [1, 0]"] ;
150 -> 151 ;
152 [label="gini = 0.0\nsamples = 2\nvalue = [0, 2]"] ;
150 -> 152 ;
153 [label="x[5] <= 0.416\ngini = 0.408\nsamples = 7\nvalue = [5, 2]"] ;
5 -> 153 ;
154 [label="gini = 0.0\nsamples = 2\nvalue = [0, 2]"] ;
153 -> 154 ;
155 [label="gini = 0.0\nsamples = 5\nvalue = [5, 0]"] ;
153 -> 155 ;
156 [label="x[9] <= 0.491\ngini = 0.174\nsamples = 687\nvalue = [621, 66]"] ;
4 -> 156 ;
157 [label="x[5] <= 0.328\ngini = 0.114\nsamples = 661\nvalue = [621, 40]"] ;
156 -> 157 ;
158 [label="x[1] <= -0.682\ngini = 0.094\nsamples = 649\nvalue = [617, 32]"] ;
157 -> 158 ;
159 [label="gini = 0.0\nsamples = 1\nvalue = [0, 1]"] ;
158 -> 159 ;
160 [label="x[5] <= 0.275\ngini = 0.091\nsamples = 648\nvalue = [617, 31]"] ;
158 -> 160 ;
161 [label="x[1] <= -0.636\ngini = 0.077\nsamples = 620\nvalue = [595, 25]"] ;
160 -> 161 ;
162 [label="x[6] <= 1.653\ngini = 0.174\nsamples = 114\nvalue = [103, 11]"] ;
161 -> 162 ;
163 [label="x[9] <= -0.109\ngini = 0.148\nsamples = 112\nvalue = [103, 9]"] ;
162 -> 163 ;
164 [label="x[9] <= -0.524\ngini = 0.305\nsamples = 48\nvalue = [39, 9]"] ;
163 -> 164 ;
165 [label="x[0] <= 1.67\ngini = 0.051\nsamples = 38\nvalue = [37, 1]"] ;
164 -> 165 ;
166 [label="gini = 0.0\nsamples = 36\nvalue = [36, 0]"] ;
165 -> 166 ;
167 [label="x[3] <= 0.219\ngini = 0.5\nsamples = 2\nvalue = [1, 1]"] ;
165 -> 167 ;
168 [label="gini = 0.0\nsamples = 1\nvalue = [0, 1]"] ;
167 -> 168 ;
169 [label="gini = 0.0\nsamples = 1\nvalue = [1, 0]"] ;
167 -> 169 ;
170 [label="x[4] <= 0.144\ngini = 0.32\nsamples = 10\nvalue = [2, 8]"] ;
164 -> 170 ;
171 [label="gini = 0.0\nsamples = 6\nvalue = [0, 6]"] ;
170 -> 171 ;
172 [label="x[3] <= 0.12\ngini = 0.5\nsamples = 4\nvalue = [2, 2]"] ;
170 -> 172 ;
173 [label="gini = 0.0\nsamples = 2\nvalue = [0, 2]"] ;
172 -> 173 ;
174 [label="gini = 0.0\nsamples = 2\nvalue = [2, 0]"] ;
172 -> 174 ;
175 [label="gini = 0.0\nsamples = 64\nvalue = [64, 0]"] ;
163 -> 175 ;
176 [label="gini = 0.0\nsamples = 2\nvalue = [0, 2]"] ;
162 -> 176 ;
177 [label="x[3] <= -0.163\ngini = 0.054\nsamples = 506\nvalue = [492, 14]"] ;
161 -> 177 ;
178 [label="gini = 0.0\nsamples = 1\nvalue = [0, 1]"] ;
177 -> 178 ;
179 [label="x[8] <= -0.322\ngini = 0.05\nsamples = 505\nvalue = [492, 13]"] ;
177 -> 179 ;
180 [label="x[8] <= -0.323\ngini = 0.105\nsamples = 198\nvalue = [187, 11]"] ;
179 -> 180 ;
181 [label="x[9] <= 0.25\ngini = 0.096\nsamples = 197\nvalue = [187, 10]"] ;
180 -> 181 ;
182 [label="x[0] <= -2.348\ngini = 0.088\nsamples = 194\nvalue = [185, 9]"] ;
181 -> 182 ;
183 [label="x[8] <= -0.912\ngini = 0.444\nsamples = 3\nvalue = [2, 1]"] ;
182 -> 183 ;
184 [label="gini = 0.0\nsamples = 2\nvalue = [2, 0]"] ;
183 -> 184 ;
185 [label="gini = 0.0\nsamples = 1\nvalue = [0, 1]"] ;
183 -> 185 ;
186 [label="x[2] <= 1.494\ngini = 0.08\nsamples = 191\nvalue = [183, 8]"] ;
182 -> 186 ;
187 [label="x[5] <= 0.239\ngini = 0.064\nsamples = 180\nvalue = [174, 6]"] ;
186 -> 187 ;
188 [label="x[2] <= -0.555\ngini = 0.048\nsamples = 163\nvalue = [159, 4]"] ;
187 -> 188 ;
189 [label="x[2] <= -0.557\ngini = 0.127\nsamples = 44\nvalue = [41, 3]"] ;
188 -> 189 ;
190 [label="x[1] <= -0.565\ngini = 0.089\nsamples = 43\nvalue = [41, 2]"] ;
189 -> 190 ;
191 [label="x[5] <= -0.072\ngini = 0.346\nsamples = 9\nvalue = [7, 2]"] ;
190 -> 191 ;
192 [label="gini = 0.0\nsamples = 6\nvalue = [6, 0]"] ;
191 -> 192 ;
193 [label="x[1] <= -0.614\ngini = 0.444\nsamples = 3\nvalue = [1, 2]"] ;
191 -> 193 ;
194 [label="gini = 0.0\nsamples = 1\nvalue = [1, 0]"] ;
193 -> 194 ;
195 [label="gini = 0.0\nsamples = 2\nvalue = [0, 2]"] ;
193 -> 195 ;
196 [label="gini = 0.0\nsamples = 34\nvalue = [34, 0]"] ;
190 -> 196 ;
197 [label="gini = 0.0\nsamples = 1\nvalue = [0, 1]"] ;
189 -> 197 ;
198 [label="x[4] <= 1.012\ngini = 0.017\nsamples = 119\nvalue = [118, 1]"] ;
188 -> 198 ;
199 [label="gini = 0.0\nsamples = 101\nvalue = [101, 0]"] ;
198 -> 199 ;
200 [label="x[4] <= 1.065\ngini = 0.105\nsamples = 18\nvalue = [17, 1]"] ;
198 -> 200 ;
201 [label="gini = 0.0\nsamples = 1\nvalue = [0, 1]"] ;
200 -> 201 ;
202 [label="gini = 0.0\nsamples = 17\nvalue = [17, 0]"] ;
200 -> 202 ;
203 [label="x[6] <= 0.668\ngini = 0.208\nsamples = 17\nvalue = [15, 2]"] ;
187 -> 203 ;
204 [label="x[5] <= 0.242\ngini = 0.117\nsamples = 16\nvalue = [15, 1]"] ;
203 -> 204 ;
205 [label="gini = 0.0\nsamples = 1\nvalue = [0, 1]"] ;
204 -> 205 ;
206 [label="gini = 0.0\nsamples = 15\nvalue = [15, 0]"] ;
204 -> 206 ;
207 [label="gini = 0.0\nsamples = 1\nvalue = [0, 1]"] ;
203 -> 207 ;
208 [label="x[2] <= 1.602\ngini = 0.298\nsamples = 11\nvalue = [9, 2]"] ;
186 -> 208 ;
209 [label="gini = 0.0\nsamples = 2\nvalue = [0, 2]"] ;
208 -> 209 ;
210 [label="gini = 0.0\nsamples = 9\nvalue = [9, 0]"] ;
208 -> 210 ;
211 [label="x[4] <= -0.729\ngini = 0.444\nsamples = 3\nvalue = [2, 1]"] ;
181 -> 211 ;
212 [label="gini = 0.0\nsamples = 1\nvalue = [0, 1]"] ;
211 -> 212 ;
213 [label="gini = 0.0\nsamples = 2\nvalue = [2, 0]"] ;
211 -> 213 ;
214 [label="gini = 0.0\nsamples = 1\nvalue = [0, 1]"] ;
180 -> 214 ;
215 [label="x[7] <= 0.222\ngini = 0.013\nsamples = 307\nvalue = [305, 2]"] ;
179 -> 215 ;
216 [label="gini = 0.0\nsamples = 175\nvalue = [175, 0]"] ;
215 -> 216 ;
217 [label="x[7] <= 0.233\ngini = 0.03\nsamples = 132\nvalue = [130, 2]"] ;
215 -> 217 ;
218 [label="gini = 0.0\nsamples = 1\nvalue = [0, 1]"] ;
217 -> 218 ;
219 [label="x[0] <= 0.907\ngini = 0.015\nsamples = 131\nvalue = [130, 1]"] ;
217 -> 219 ;
220 [label="gini = 0.0\nsamples = 109\nvalue = [109, 0]"] ;
219 -> 220 ;
221 [label="x[0] <= 0.93\ngini = 0.087\nsamples = 22\nvalue = [21, 1]"] ;
219 -> 221 ;
222 [label="gini = 0.0\nsamples = 1\nvalue = [0, 1]"] ;
221 -> 222 ;
223 [label="gini = 0.0\nsamples = 21\nvalue = [21, 0]"] ;
221 -> 223 ;
224 [label="x[5] <= 0.278\ngini = 0.337\nsamples = 28\nvalue = [22, 6]"] ;
160 -> 224 ;
225 [label="gini = 0.0\nsamples = 2\nvalue = [0, 2]"] ;
224 -> 225 ;
226 [label="x[0] <= 1.327\ngini = 0.26\nsamples = 26\nvalue = [22, 4]"] ;
224 -> 226 ;
227 [label="x[7] <= 0.52\ngini = 0.211\nsamples = 25\nvalue = [22, 3]"] ;
226 -> 227 ;
228 [label="gini = 0.0\nsamples = 18\nvalue = [18, 0]"] ;
227 -> 228 ;
229 [label="x[0] <= -0.105\ngini = 0.49\nsamples = 7\nvalue = [4, 3]"] ;
227 -> 229 ;
230 [label="x[5] <= 0.319\ngini = 0.375\nsamples = 4\nvalue = [1, 3]"] ;
229 -> 230 ;
231 [label="gini = 0.0\nsamples = 3\nvalue = [0, 3]"] ;
230 -> 231 ;
232 [label="gini = 0.0\nsamples = 1\nvalue = [1, 0]"] ;
230 -> 232 ;
233 [label="gini = 0.0\nsamples = 3\nvalue = [3, 0]"] ;
229 -> 233 ;
234 [label="gini = 0.0\nsamples = 1\nvalue = [0, 1]"] ;
226 -> 234 ;
235 [label="x[8] <= 0.343\ngini = 0.444\nsamples = 12\nvalue = [4, 8]"] ;
157 -> 235 ;
236 [label="x[4] <= 1.805\ngini = 0.198\nsamples = 9\nvalue = [1, 8]"] ;
235 -> 236 ;
237 [label="gini = 0.0\nsamples = 8\nvalue = [0, 8]"] ;
236 -> 237 ;
238 [label="gini = 0.0\nsamples = 1\nvalue = [1, 0]"] ;
236 -> 238 ;
239 [label="gini = 0.0\nsamples = 3\nvalue = [3, 0]"] ;
235 -> 239 ;
240 [label="gini = 0.0\nsamples = 26\nvalue = [0, 26]"] ;
156 -> 240 ;
241 [label="x[5] <= -0.003\ngini = 0.434\nsamples = 245\nvalue = [167, 78]"] ;
3 -> 241 ;
242 [label="x[5] <= -0.093\ngini = 0.18\nsamples = 60\nvalue = [6, 54]"] ;
241 -> 242 ;
243 [label="gini = 0.0\nsamples = 45\nvalue = [0, 45]"] ;
242 -> 243 ;
244 [label="x[9] <= -0.107\ngini = 0.48\nsamples = 15\nvalue = [6, 9]"] ;
242 -> 244 ;
245 [label="x[4] <= -1.667\ngini = 0.245\nsamples = 7\nvalue = [1, 6]"] ;
244 -> 245 ;
246 [label="gini = 0.0\nsamples = 1\nvalue = [1, 0]"] ;
245 -> 246 ;
247 [label="gini = 0.0\nsamples = 6\nvalue = [0, 6]"] ;
245 -> 247 ;
248 [label="x[7] <= 1.099\ngini = 0.469\nsamples = 8\nvalue = [5, 3]"] ;
244 -> 248 ;
249 [label="x[6] <= 1.334\ngini = 0.278\nsamples = 6\nvalue = [5, 1]"] ;
248 -> 249 ;
250 [label="gini = 0.0\nsamples = 5\nvalue = [5, 0]"] ;
249 -> 250 ;
251 [label="gini = 0.0\nsamples = 1\nvalue = [0, 1]"] ;
249 -> 251 ;
252 [label="gini = 0.0\nsamples = 2\nvalue = [0, 2]"] ;
248 -> 252 ;
253 [label="x[3] <= 0.283\ngini = 0.226\nsamples = 185\nvalue = [161, 24]"] ;
241 -> 253 ;
254 [label="x[6] <= 0.281\ngini = 0.177\nsamples = 173\nvalue = [156, 17]"] ;
253 -> 254 ;
255 [label="x[5] <= 0.057\ngini = 0.247\nsamples = 104\nvalue = [89, 15]"] ;
254 -> 255 ;
256 [label="x[5] <= 0.04\ngini = 0.5\nsamples = 6\nvalue = [3, 3]"] ;
255 -> 256 ;
257 [label="x[7] <= 0.378\ngini = 0.375\nsamples = 4\nvalue = [3, 1]"] ;
256 -> 257 ;
258 [label="gini = 0.0\nsamples = 3\nvalue = [3, 0]"] ;
257 -> 258 ;
259 [label="gini = 0.0\nsamples = 1\nvalue = [0, 1]"] ;
257 -> 259 ;
260 [label="gini = 0.0\nsamples = 2\nvalue = [0, 2]"] ;
256 -> 260 ;
261 [label="x[6] <= 0.259\ngini = 0.215\nsamples = 98\nvalue = [86, 12]"] ;
255 -> 261 ;
262 [label="x[2] <= 0.132\ngini = 0.201\nsamples = 97\nvalue = [86, 11]"] ;
261 -> 262 ;
263 [label="x[4] <= -2.025\ngini = 0.08\nsamples = 48\nvalue = [46, 2]"] ;
262 -> 263 ;
264 [label="x[6] <= -0.493\ngini = 0.444\nsamples = 3\nvalue = [2, 1]"] ;
263 -> 264 ;
265 [label="gini = 0.0\nsamples = 1\nvalue = [0, 1]"] ;
264 -> 265 ;
266 [label="gini = 0.0\nsamples = 2\nvalue = [2, 0]"] ;
264 -> 266 ;
267 [label="x[0] <= 1.148\ngini = 0.043\nsamples = 45\nvalue = [44, 1]"] ;
263 -> 267 ;
268 [label="gini = 0.0\nsamples = 38\nvalue = [38, 0]"] ;
267 -> 268 ;
269 [label="x[0] <= 1.209\ngini = 0.245\nsamples = 7\nvalue = [6, 1]"] ;
267 -> 269 ;
270 [label="gini = 0.0\nsamples = 1\nvalue = [0, 1]"] ;
269 -> 270 ;
271 [label="gini = 0.0\nsamples = 6\nvalue = [6, 0]"] ;
269 -> 271 ;
272 [label="x[7] <= -0.756\ngini = 0.3\nsamples = 49\nvalue = [40, 9]"] ;
262 -> 272 ;
273 [label="x[2] <= 0.832\ngini = 0.494\nsamples = 9\nvalue = [5, 4]"] ;
272 -> 273 ;
274 [label="x[5] <= 0.107\ngini = 0.32\nsamples = 5\nvalue = [1, 4]"] ;
273 -> 274 ;
275 [label="gini = 0.0\nsamples = 1\nvalue = [1, 0]"] ;
274 -> 275 ;
276 [label="gini = 0.0\nsamples = 4\nvalue = [0, 4]"] ;
274 -> 276 ;
277 [label="gini = 0.0\nsamples = 4\nvalue = [4, 0]"] ;
273 -> 277 ;
278 [label="x[3] <= 0.216\ngini = 0.219\nsamples = 40\nvalue = [35, 5]"] ;
272 -> 278 ;
279 [label="x[8] <= -1.454\ngini = 0.067\nsamples = 29\nvalue = [28, 1]"] ;
278 -> 279 ;
280 [label="x[4] <= -0.38\ngini = 0.5\nsamples = 2\nvalue = [1, 1]"] ;
279 -> 280 ;
281 [label="gini = 0.0\nsamples = 1\nvalue = [1, 0]"] ;
280 -> 281 ;
282 [label="gini = 0.0\nsamples = 1\nvalue = [0, 1]"] ;
280 -> 282 ;
283 [label="gini = 0.0\nsamples = 27\nvalue = [27, 0]"] ;
279 -> 283 ;
284 [label="x[8] <= -0.309\ngini = 0.463\nsamples = 11\nvalue = [7, 4]"] ;
278 -> 284 ;
285 [label="gini = 0.0\nsamples = 3\nvalue = [0, 3]"] ;
284 -> 285 ;
286 [label="x[1] <= -0.304\ngini = 0.219\nsamples = 8\nvalue = [7, 1]"] ;
284 -> 286 ;
287 [label="gini = 0.0\nsamples = 1\nvalue = [0, 1]"] ;
286 -> 287 ;
288 [label="gini = 0.0\nsamples = 7\nvalue = [7, 0]"] ;
286 -> 288 ;
289 [label="gini = 0.0\nsamples = 1\nvalue = [0, 1]"] ;
261 -> 289 ;
290 [label="x[7] <= 1.735\ngini = 0.056\nsamples = 69\nvalue = [67, 2]"] ;
254 -> 290 ;
291 [label="x[1] <= -0.186\ngini = 0.03\nsamples = 66\nvalue = [65, 1]"] ;
290 -> 291 ;
292 [label="gini = 0.0\nsamples = 60\nvalue = [60, 0]"] ;
291 -> 292 ;
293 [label="x[1] <= -0.179\ngini = 0.278\nsamples = 6\nvalue = [5, 1]"] ;
291 -> 293 ;
294 [label="gini = 0.0\nsamples = 1\nvalue = [0, 1]"] ;
293 -> 294 ;
295 [label="gini = 0.0\nsamples = 5\nvalue = [5, 0]"] ;
293 -> 295 ;
296 [label="x[3] <= 0.177\ngini = 0.444\nsamples = 3\nvalue = [2, 1]"] ;
290 -> 296 ;
297 [label="gini = 0.0\nsamples = 1\nvalue = [0, 1]"] ;
296 -> 297 ;
298 [label="gini = 0.0\nsamples = 2\nvalue = [2, 0]"] ;
296 -> 298 ;
299 [label="x[6] <= -0.08\ngini = 0.486\nsamples = 12\nvalue = [5, 7]"] ;
253 -> 299 ;
300 [label="x[5] <= 0.375\ngini = 0.278\nsamples = 6\nvalue = [5, 1]"] ;
299 -> 300 ;
301 [label="gini = 0.0\nsamples = 1\nvalue = [0, 1]"] ;
300 -> 301 ;
302 [label="gini = 0.0\nsamples = 5\nvalue = [5, 0]"] ;
300 -> 302 ;
303 [label="gini = 0.0\nsamples = 6\nvalue = [0, 6]"] ;
299 -> 303 ;
304 [label="x[1] <= -1.474\ngini = 0.499\nsamples = 244\nvalue = [126, 118]"] ;
2 -> 304 ;
305 [label="x[3] <= -1.445\ngini = 0.074\nsamples = 130\nvalue = [125, 5]"] ;
304 -> 305 ;
306 [label="gini = 0.0\nsamples = 3\nvalue = [0, 3]"] ;
305 -> 306 ;
307 [label="x[4] <= 1.426\ngini = 0.031\nsamples = 127\nvalue = [125, 2]"] ;
305 -> 307 ;
308 [label="gini = 0.0\nsamples = 114\nvalue = [114, 0]"] ;
307 -> 308 ;
309 [label="x[4] <= 1.472\ngini = 0.26\nsamples = 13\nvalue = [11, 2]"] ;
307 -> 309 ;
310 [label="gini = 0.0\nsamples = 1\nvalue = [0, 1]"] ;
309 -> 310 ;
311 [label="x[4] <= 1.687\ngini = 0.153\nsamples = 12\nvalue = [11, 1]"] ;
309 -> 311 ;
312 [label="x[5] <= -1.892\ngini = 0.444\nsamples = 3\nvalue = [2, 1]"] ;
311 -> 312 ;
313 [label="gini = 0.0\nsamples = 2\nvalue = [2, 0]"] ;
312 -> 313 ;
314 [label="gini = 0.0\nsamples = 1\nvalue = [0, 1]"] ;
312 -> 314 ;
315 [label="gini = 0.0\nsamples = 9\nvalue = [9, 0]"] ;
311 -> 315 ;
316 [label="x[6] <= 2.181\ngini = 0.017\nsamples = 114\nvalue = [1, 113]"] ;
304 -> 316 ;
317 [label="gini = 0.0\nsamples = 112\nvalue = [0, 112]"] ;
316 -> 317 ;
318 [label="x[1] <= -0.373\ngini = 0.5\nsamples = 2\nvalue = [1, 1]"] ;
316 -> 318 ;
319 [label="gini = 0.0\nsamples = 1\nvalue = [0, 1]"] ;
318 -> 319 ;
320 [label="gini = 0.0\nsamples = 1\nvalue = [1, 0]"] ;
318 -> 320 ;
321 [label="gini = 0.0\nsamples = 49\nvalue = [0, 49]"] ;
1 -> 321 ;
322 [label="x[1] <= 0.107\ngini = 0.101\nsamples = 3799\nvalue = [202, 3597]"] ;
0 -> 322 [labeldistance=2.5, labelangle=-45, headlabel="False"] ;
323 [label="x[9] <= 0.095\ngini = 0.455\nsamples = 351\nvalue = [123, 228]"] ;
322 -> 323 ;
324 [label="x[9] <= -0.541\ngini = 0.491\nsamples = 215\nvalue = [122, 93]"] ;
323 -> 324 ;
325 [label="x[1] <= -0.084\ngini = 0.434\nsamples = 91\nvalue = [29, 62]"] ;
324 -> 325 ;
326 [label="x[9] <= -1.186\ngini = 0.5\nsamples = 37\nvalue = [19, 18]"] ;
325 -> 326 ;
327 [label="gini = 0.0\nsamples = 6\nvalue = [0, 6]"] ;
326 -> 327 ;
328 [label="x[1] <= -0.098\ngini = 0.475\nsamples = 31\nvalue = [19, 12]"] ;
326 -> 328 ;
329 [label="x[1] <= -0.117\ngini = 0.497\nsamples = 26\nvalue = [14, 12]"] ;
328 -> 329 ;
330 [label="x[2] <= 0.474\ngini = 0.463\nsamples = 22\nvalue = [14, 8]"] ;
329 -> 330 ;
331 [label="x[2] <= -0.785\ngini = 0.498\nsamples = 15\nvalue = [7, 8]"] ;
330 -> 331 ;
332 [label="gini = 0.0\nsamples = 3\nvalue = [3, 0]"] ;
331 -> 332 ;
333 [label="x[1] <= -0.126\ngini = 0.444\nsamples = 12\nvalue = [4, 8]"] ;
331 -> 333 ;
334 [label="x[7] <= -2.446\ngini = 0.32\nsamples = 10\nvalue = [2, 8]"] ;
333 -> 334 ;
335 [label="gini = 0.0\nsamples = 1\nvalue = [1, 0]"] ;
334 -> 335 ;
336 [label="x[0] <= -1.717\ngini = 0.198\nsamples = 9\nvalue = [1, 8]"] ;
334 -> 336 ;
337 [label="gini = 0.0\nsamples = 1\nvalue = [1, 0]"] ;
336 -> 337 ;
338 [label="gini = 0.0\nsamples = 8\nvalue = [0, 8]"] ;
336 -> 338 ;
339 [label="gini = 0.0\nsamples = 2\nvalue = [2, 0]"] ;
333 -> 339 ;
340 [label="gini = 0.0\nsamples = 7\nvalue = [7, 0]"] ;
330 -> 340 ;
341 [label="gini = 0.0\nsamples = 4\nvalue = [0, 4]"] ;
329 -> 341 ;
342 [label="gini = 0.0\nsamples = 5\nvalue = [5, 0]"] ;
328 -> 342 ;
343 [label="x[7] <= 0.736\ngini = 0.302\nsamples = 54\nvalue = [10, 44]"] ;
325 -> 343 ;
344 [label="x[0] <= -2.433\ngini = 0.172\nsamples = 42\nvalue = [4, 38]"] ;
343 -> 344 ;
345 [label="gini = 0.0\nsamples = 1\nvalue = [1, 0]"] ;
344 -> 345 ;
346 [label="x[2] <= -1.596\ngini = 0.136\nsamples = 41\nvalue = [3, 38]"] ;
344 -> 346 ;
347 [label="gini = 0.0\nsamples = 1\nvalue = [1, 0]"] ;
346 -> 347 ;
348 [label="x[6] <= -1.361\ngini = 0.095\nsamples = 40\nvalue = [2, 38]"] ;
346 -> 348 ;
349 [label="x[3] <= 0.456\ngini = 0.444\nsamples = 3\nvalue = [1, 2]"] ;
348 -> 349 ;
350 [label="gini = 0.0\nsamples = 1\nvalue = [1, 0]"] ;
349 -> 350 ;
351 [label="gini = 0.0\nsamples = 2\nvalue = [0, 2]"] ;
349 -> 351 ;
352 [label="x[0] <= 1.327\ngini = 0.053\nsamples = 37\nvalue = [1, 36]"] ;
348 -> 352 ;
353 [label="gini = 0.0\nsamples = 34\nvalue = [0, 34]"] ;
352 -> 353 ;
354 [label="x[4] <= 1.411\ngini = 0.444\nsamples = 3\nvalue = [1, 2]"] ;
352 -> 354 ;
355 [label="gini = 0.0\nsamples = 2\nvalue = [0, 2]"] ;
354 -> 355 ;
356 [label="gini = 0.0\nsamples = 1\nvalue = [1, 0]"] ;
354 -> 356 ;
357 [label="x[4] <= -0.656\ngini = 0.5\nsamples = 12\nvalue = [6, 6]"] ;
343 -> 357 ;
358 [label="gini = 0.0\nsamples = 4\nvalue = [4, 0]"] ;
357 -> 358 ;
359 [label="x[3] <= 0.21\ngini = 0.375\nsamples = 8\nvalue = [2, 6]"] ;
357 -> 359 ;
360 [label="gini = 0.0\nsamples = 1\nvalue = [1, 0]"] ;
359 -> 360 ;
361 [label="x[7] <= 0.771\ngini = 0.245\nsamples = 7\nvalue = [1, 6]"] ;
359 -> 361 ;
362 [label="gini = 0.0\nsamples = 1\nvalue = [1, 0]"] ;
361 -> 362 ;
363 [label="gini = 0.0\nsamples = 6\nvalue = [0, 6]"] ;
361 -> 363 ;
364 [label="x[5] <= 0.083\ngini = 0.375\nsamples = 124\nvalue = [93, 31]"] ;
324 -> 364 ;
365 [label="x[1] <= -0.064\ngini = 0.497\nsamples = 37\nvalue = [20, 17]"] ;
364 -> 365 ;
366 [label="x[8] <= 1.063\ngini = 0.391\nsamples = 15\nvalue = [4, 11]"] ;
365 -> 366 ;
367 [label="x[8] <= -1.53\ngini = 0.278\nsamples = 12\nvalue = [2, 10]"] ;
366 -> 367 ;
368 [label="gini = 0.0\nsamples = 1\nvalue = [1, 0]"] ;
367 -> 368 ;
369 [label="x[6] <= -2.292\ngini = 0.165\nsamples = 11\nvalue = [1, 10]"] ;
367 -> 369 ;
370 [label="gini = 0.0\nsamples = 1\nvalue = [1, 0]"] ;
369 -> 370 ;
371 [label="gini = 0.0\nsamples = 10\nvalue = [0, 10]"] ;
369 -> 371 ;
372 [label="x[1] <= -0.13\ngini = 0.444\nsamples = 3\nvalue = [2, 1]"] ;
366 -> 372 ;
373 [label="gini = 0.0\nsamples = 2\nvalue = [2, 0]"] ;
372 -> 373 ;
374 [label="gini = 0.0\nsamples = 1\nvalue = [0, 1]"] ;
372 -> 374 ;
375 [label="x[8] <= -1.185\ngini = 0.397\nsamples = 22\nvalue = [16, 6]"] ;
365 -> 375 ;
376 [label="gini = 0.0\nsamples = 2\nvalue = [0, 2]"] ;
375 -> 376 ;
377 [label="x[6] <= 1.522\ngini = 0.32\nsamples = 20\nvalue = [16, 4]"] ;
375 -> 377 ;
378 [label="x[1] <= 0.058\ngini = 0.198\nsamples = 18\nvalue = [16, 2]"] ;
377 -> 378 ;
379 [label="gini = 0.0\nsamples = 15\nvalue = [15, 0]"] ;
378 -> 379 ;
380 [label="x[3] <= -0.0\ngini = 0.444\nsamples = 3\nvalue = [1, 2]"] ;
378 -> 380 ;
381 [label="gini = 0.0\nsamples = 1\nvalue = [1, 0]"] ;
380 -> 381 ;
382 [label="gini = 0.0\nsamples = 2\nvalue = [0, 2]"] ;
380 -> 382 ;
383 [label="gini = 0.0\nsamples = 2\nvalue = [0, 2]"] ;
377 -> 383 ;
384 [label="x[4] <= -1.758\ngini = 0.27\nsamples = 87\nvalue = [73, 14]"] ;
364 -> 384 ;
385 [label="gini = 0.0\nsamples = 2\nvalue = [0, 2]"] ;
384 -> 385 ;
386 [label="x[7] <= -0.205\ngini = 0.242\nsamples = 85\nvalue = [73, 12]"] ;
384 -> 386 ;
387 [label="x[9] <= -0.471\ngini = 0.085\nsamples = 45\nvalue = [43, 2]"] ;
386 -> 387 ;
388 [label="gini = 0.0\nsamples = 1\nvalue = [0, 1]"] ;
387 -> 388 ;
389 [label="x[8] <= -2.543\ngini = 0.044\nsamples = 44\nvalue = [43, 1]"] ;
387 -> 389 ;
390 [label="gini = 0.0\nsamples = 1\nvalue = [0, 1]"] ;
389 -> 390 ;
391 [label="gini = 0.0\nsamples = 43\nvalue = [43, 0]"] ;
389 -> 391 ;
392 [label="x[0] <= 0.248\ngini = 0.375\nsamples = 40\nvalue = [30, 10]"] ;
386 -> 392 ;
393 [label="x[2] <= -0.092\ngini = 0.459\nsamples = 28\nvalue = [18, 10]"] ;
392 -> 393 ;
394 [label="x[1] <= -0.066\ngini = 0.463\nsamples = 11\nvalue = [4, 7]"] ;
393 -> 394 ;
395 [label="x[2] <= -0.498\ngini = 0.444\nsamples = 6\nvalue = [4, 2]"] ;
394 -> 395 ;
396 [label="gini = 0.0\nsamples = 4\nvalue = [4, 0]"] ;
395 -> 396 ;
397 [label="gini = 0.0\nsamples = 2\nvalue = [0, 2]"] ;
395 -> 397 ;
398 [label="gini = 0.0\nsamples = 5\nvalue = [0, 5]"] ;
394 -> 398 ;
399 [label="x[4] <= 1.385\ngini = 0.291\nsamples = 17\nvalue = [14, 3]"] ;
393 -> 399 ;
400 [label="x[7] <= -0.097\ngini = 0.133\nsamples = 14\nvalue = [13, 1]"] ;
399 -> 400 ;
401 [label="gini = 0.0\nsamples = 1\nvalue = [0, 1]"] ;
400 -> 401 ;
402 [label="gini = 0.0\nsamples = 13\nvalue = [13, 0]"] ;
400 -> 402 ;
403 [label="x[0] <= 0.156\ngini = 0.444\nsamples = 3\nvalue = [1, 2]"] ;
399 -> 403 ;
404 [label="gini = 0.0\nsamples = 2\nvalue = [0, 2]"] ;
403 -> 404 ;
405 [label="gini = 0.0\nsamples = 1\nvalue = [1, 0]"] ;
403 -> 405 ;
406 [label="gini = 0.0\nsamples = 12\nvalue = [12, 0]"] ;
392 -> 406 ;
407 [label="x[1] <= 0.103\ngini = 0.015\nsamples = 136\nvalue = [1, 135]"] ;
323 -> 407 ;
408 [label="gini = 0.0\nsamples = 135\nvalue = [0, 135]"] ;
407 -> 408 ;
409 [label="gini = 0.0\nsamples = 1\nvalue = [1, 0]"] ;
407 -> 409 ;
410 [label="x[1] <= 0.53\ngini = 0.045\nsamples = 3448\nvalue = [79, 3369]"] ;
322 -> 410 ;
411 [label="x[5] <= -0.075\ngini = 0.164\nsamples = 679\nvalue = [61, 618]"] ;
410 -> 411 ;
412 [label="x[1] <= 0.529\ngini = 0.011\nsamples = 355\nvalue = [2, 353]"] ;
411 -> 412 ;
413 [label="x[0] <= -1.286\ngini = 0.006\nsamples = 354\nvalue = [1, 353]"] ;
412 -> 413 ;
414 [label="x[0] <= -1.304\ngini = 0.051\nsamples = 38\nvalue = [1, 37]"] ;
413 -> 414 ;
415 [label="gini = 0.0\nsamples = 37\nvalue = [0, 37]"] ;
414 -> 415 ;
416 [label="gini = 0.0\nsamples = 1\nvalue = [1, 0]"] ;
414 -> 416 ;
417 [label="gini = 0.0\nsamples = 316\nvalue = [0, 316]"] ;
413 -> 417 ;
418 [label="gini = 0.0\nsamples = 1\nvalue = [1, 0]"] ;
412 -> 418 ;
419 [label="x[5] <= 0.296\ngini = 0.298\nsamples = 324\nvalue = [59, 265]"] ;
411 -> 419 ;
420 [label="x[1] <= 0.342\ngini = 0.5\nsamples = 111\nvalue = [56, 55]"] ;
419 -> 420 ;
421 [label="x[6] <= -0.65\ngini = 0.467\nsamples = 62\nvalue = [39, 23]"] ;
420 -> 421 ;
422 [label="x[5] <= 0.251\ngini = 0.105\nsamples = 18\nvalue = [17, 1]"] ;
421 -> 422 ;
423 [label="gini = 0.0\nsamples = 16\nvalue = [16, 0]"] ;
422 -> 423 ;
424 [label="x[6] <= -1.416\ngini = 0.5\nsamples = 2\nvalue = [1, 1]"] ;
422 -> 424 ;
425 [label="gini = 0.0\nsamples = 1\nvalue = [0, 1]"] ;
424 -> 425 ;
426 [label="gini = 0.0\nsamples = 1\nvalue = [1, 0]"] ;
424 -> 426 ;
427 [label="x[6] <= -0.133\ngini = 0.5\nsamples = 44\nvalue = [22, 22]"] ;
421 -> 427 ;
428 [label="gini = 0.0\nsamples = 7\nvalue = [0, 7]"] ;
427 -> 428 ;
429 [label="x[8] <= 0.061\ngini = 0.482\nsamples = 37\nvalue = [22, 15]"] ;
427 -> 429 ;
430 [label="x[8] <= -1.201\ngini = 0.488\nsamples = 19\nvalue = [8, 11]"] ;
429 -> 430 ;
431 [label="x[4] <= -0.914\ngini = 0.32\nsamples = 5\nvalue = [4, 1]"] ;
430 -> 431 ;
432 [label="gini = 0.0\nsamples = 1\nvalue = [0, 1]"] ;
431 -> 432 ;
433 [label="gini = 0.0\nsamples = 4\nvalue = [4, 0]"] ;
431 -> 433 ;
434 [label="x[2] <= 0.092\ngini = 0.408\nsamples = 14\nvalue = [4, 10]"] ;
430 -> 434 ;
435 [label="gini = 0.0\nsamples = 7\nvalue = [0, 7]"] ;
434 -> 435 ;
436 [label="x[5] <= 0.138\ngini = 0.49\nsamples = 7\nvalue = [4, 3]"] ;
434 -> 436 ;
437 [label="gini = 0.0\nsamples = 3\nvalue = [3, 0]"] ;
436 -> 437 ;
438 [label="x[7] <= -0.159\ngini = 0.375\nsamples = 4\nvalue = [1, 3]"] ;
436 -> 438 ;
439 [label="gini = 0.0\nsamples = 1\nvalue = [1, 0]"] ;
438 -> 439 ;
440 [label="gini = 0.0\nsamples = 3\nvalue = [0, 3]"] ;
438 -> 440 ;
441 [label="x[6] <= 1.473\ngini = 0.346\nsamples = 18\nvalue = [14, 4]"] ;
429 -> 441 ;
442 [label="x[3] <= -0.026\ngini = 0.142\nsamples = 13\nvalue = [12, 1]"] ;
441 -> 442 ;
443 [label="x[6] <= 0.598\ngini = 0.5\nsamples = 2\nvalue = [1, 1]"] ;
442 -> 443 ;
444 [label="gini = 0.0\nsamples = 1\nvalue = [1, 0]"] ;
443 -> 444 ;
445 [label="gini = 0.0\nsamples = 1\nvalue = [0, 1]"] ;
443 -> 445 ;
446 [label="gini = 0.0\nsamples = 11\nvalue = [11, 0]"] ;
442 -> 446 ;
447 [label="x[6] <= 1.882\ngini = 0.48\nsamples = 5\nvalue = [2, 3]"] ;
441 -> 447 ;
448 [label="gini = 0.0\nsamples = 3\nvalue = [0, 3]"] ;
447 -> 448 ;
449 [label="gini = 0.0\nsamples = 2\nvalue = [2, 0]"] ;
447 -> 449 ;
450 [label="x[2] <= -1.071\ngini = 0.453\nsamples = 49\nvalue = [17, 32]"] ;
420 -> 450 ;
451 [label="gini = 0.0\nsamples = 11\nvalue = [0, 11]"] ;
450 -> 451 ;
452 [label="x[1] <= 0.379\ngini = 0.494\nsamples = 38\nvalue = [17, 21]"] ;
450 -> 452 ;
453 [label="gini = 0.0\nsamples = 7\nvalue = [0, 7]"] ;
452 -> 453 ;
454 [label="x[2] <= -0.024\ngini = 0.495\nsamples = 31\nvalue = [17, 14]"] ;
452 -> 454 ;
455 [label="x[6] <= -1.093\ngini = 0.18\nsamples = 10\nvalue = [9, 1]"] ;
454 -> 455 ;
456 [label="gini = 0.0\nsamples = 1\nvalue = [0, 1]"] ;
455 -> 456 ;
457 [label="gini = 0.0\nsamples = 9\nvalue = [9, 0]"] ;
455 -> 457 ;
458 [label="x[2] <= 0.954\ngini = 0.472\nsamples = 21\nvalue = [8, 13]"] ;
454 -> 458 ;
459 [label="x[8] <= 1.638\ngini = 0.36\nsamples = 17\nvalue = [4, 13]"] ;
458 -> 459 ;
460 [label="x[1] <= 0.454\ngini = 0.231\nsamples = 15\nvalue = [2, 13]"] ;
459 -> 460 ;
461 [label="x[7] <= 0.057\ngini = 0.444\nsamples = 6\nvalue = [2, 4]"] ;
460 -> 461 ;
462 [label="gini = 0.0\nsamples = 3\nvalue = [0, 3]"] ;
461 -> 462 ;
463 [label="x[5] <= 0.162\ngini = 0.444\nsamples = 3\nvalue = [2, 1]"] ;
461 -> 463 ;
464 [label="gini = 0.0\nsamples = 2\nvalue = [2, 0]"] ;
463 -> 464 ;
465 [label="gini = 0.0\nsamples = 1\nvalue = [0, 1]"] ;
463 -> 465 ;
466 [label="gini = 0.0\nsamples = 9\nvalue = [0, 9]"] ;
460 -> 466 ;
467 [label="gini = 0.0\nsamples = 2\nvalue = [2, 0]"] ;
459 -> 467 ;
468 [label="gini = 0.0\nsamples = 4\nvalue = [4, 0]"] ;
458 -> 468 ;
469 [label="x[7] <= -1.81\ngini = 0.028\nsamples = 213\nvalue = [3, 210]"] ;
419 -> 469 ;
470 [label="x[7] <= -1.835\ngini = 0.245\nsamples = 7\nvalue = [1, 6]"] ;
469 -> 470 ;
471 [label="gini = 0.0\nsamples = 6\nvalue = [0, 6]"] ;
470 -> 471 ;
472 [label="gini = 0.0\nsamples = 1\nvalue = [1, 0]"] ;
470 -> 472 ;
473 [label="x[7] <= -0.584\ngini = 0.019\nsamples = 206\nvalue = [2, 204]"] ;
469 -> 473 ;
474 [label="x[7] <= -0.597\ngini = 0.071\nsamples = 54\nvalue = [2, 52]"] ;
473 -> 474 ;
475 [label="x[2] <= 1.052\ngini = 0.037\nsamples = 53\nvalue = [1, 52]"] ;
474 -> 475 ;
476 [label="gini = 0.0\nsamples = 47\nvalue = [0, 47]"] ;
475 -> 476 ;
477 [label="x[1] <= 0.402\ngini = 0.278\nsamples = 6\nvalue = [1, 5]"] ;
475 -> 477 ;
478 [label="gini = 0.0\nsamples = 5\nvalue = [0, 5]"] ;
477 -> 478 ;
479 [label="gini = 0.0\nsamples = 1\nvalue = [1, 0]"] ;
477 -> 479 ;
480 [label="gini = 0.0\nsamples = 1\nvalue = [1, 0]"] ;
474 -> 480 ;
481 [label="gini = 0.0\nsamples = 152\nvalue = [0, 152]"] ;
473 -> 481 ;
482 [label="x[0] <= 3.384\ngini = 0.013\nsamples = 2769\nvalue = [18, 2751]"] ;
410 -> 482 ;
483 [label="x[1] <= 0.763\ngini = 0.012\nsamples = 2768\nvalue = [17, 2751]"] ;
482 -> 483 ;
484 [label="x[1] <= 0.763\ngini = 0.047\nsamples = 374\nvalue = [9, 365]"] ;
483 -> 484 ;
485 [label="x[6] <= 0.705\ngini = 0.042\nsamples = 373\nvalue = [8, 365]"] ;
484 -> 485 ;
486 [label="x[2] <= -2.265\ngini = 0.02\nsamples = 293\nvalue = [3, 290]"] ;
485 -> 486 ;
487 [label="x[1] <= 0.574\ngini = 0.278\nsamples = 6\nvalue = [1, 5]"] ;
486 -> 487 ;
488 [label="gini = 0.0\nsamples = 1\nvalue = [1, 0]"] ;
487 -> 488 ;
489 [label="gini = 0.0\nsamples = 5\nvalue = [0, 5]"] ;
487 -> 489 ;
490 [label="x[2] <= 1.83\ngini = 0.014\nsamples = 287\nvalue = [2, 285]"] ;
486 -> 490 ;
491 [label="x[7] <= -1.21\ngini = 0.007\nsamples = 277\nvalue = [1, 276]"] ;
490 -> 491 ;
492 [label="x[7] <= -1.222\ngini = 0.061\nsamples = 32\nvalue = [1, 31]"] ;
491 -> 492 ;
493 [label="gini = 0.0\nsamples = 31\nvalue = [0, 31]"] ;
492 -> 493 ;
494 [label="gini = 0.0\nsamples = 1\nvalue = [1, 0]"] ;
492 -> 494 ;
495 [label="gini = 0.0\nsamples = 245\nvalue = [0, 245]"] ;
491 -> 495 ;
496 [label="x[2] <= 1.835\ngini = 0.18\nsamples = 10\nvalue = [1, 9]"] ;
490 -> 496 ;
497 [label="gini = 0.0\nsamples = 1\nvalue = [1, 0]"] ;
496 -> 497 ;
498 [label="gini = 0.0\nsamples = 9\nvalue = [0, 9]"] ;
496 -> 498 ;
499 [label="x[6] <= 0.717\ngini = 0.117\nsamples = 80\nvalue = [5, 75]"] ;
485 -> 499 ;
500 [label="gini = 0.0\nsamples = 1\nvalue = [1, 0]"] ;
499 -> 500 ;
501 [label="x[8] <= -1.474\ngini = 0.096\nsamples = 79\nvalue = [4, 75]"] ;
499 -> 501 ;
502 [label="x[9] <= 0.963\ngini = 0.5\nsamples = 2\nvalue = [1, 1]"] ;
501 -> 502 ;
503 [label="gini = 0.0\nsamples = 1\nvalue = [1, 0]"] ;
502 -> 503 ;
504 [label="gini = 0.0\nsamples = 1\nvalue = [0, 1]"] ;
502 -> 504 ;
505 [label="x[7] <= 1.731\ngini = 0.075\nsamples = 77\nvalue = [3, 74]"] ;
501 -> 505 ;
506 [label="x[6] <= 0.941\ngini = 0.053\nsamples = 74\nvalue = [2, 72]"] ;
505 -> 506 ;
507 [label="x[6] <= 0.927\ngini = 0.159\nsamples = 23\nvalue = [2, 21]"] ;
506 -> 507 ;
508 [label="x[7] <= 1.223\ngini = 0.087\nsamples = 22\nvalue = [1, 21]"] ;
507 -> 508 ;
509 [label="gini = 0.0\nsamples = 19\nvalue = [0, 19]"] ;
508 -> 509 ;
510 [label="x[4] <= -0.103\ngini = 0.444\nsamples = 3\nvalue = [1, 2]"] ;
508 -> 510 ;
511 [label="gini = 0.0\nsamples = 2\nvalue = [0, 2]"] ;
510 -> 511 ;
512 [label="gini = 0.0\nsamples = 1\nvalue = [1, 0]"] ;
510 -> 512 ;
513 [label="gini = 0.0\nsamples = 1\nvalue = [1, 0]"] ;
507 -> 513 ;
514 [label="gini = 0.0\nsamples = 51\nvalue = [0, 51]"] ;
506 -> 514 ;
515 [label="x[5] <= 0.639\ngini = 0.444\nsamples = 3\nvalue = [1, 2]"] ;
505 -> 515 ;
516 [label="gini = 0.0\nsamples = 2\nvalue = [0, 2]"] ;
515 -> 516 ;
517 [label="gini = 0.0\nsamples = 1\nvalue = [1, 0]"] ;
515 -> 517 ;
518 [label="gini = 0.0\nsamples = 1\nvalue = [1, 0]"] ;
484 -> 518 ;
519 [label="x[5] <= 0.211\ngini = 0.007\nsamples = 2394\nvalue = [8, 2386]"] ;
483 -> 519 ;
520 [label="x[5] <= 0.211\ngini = 0.018\nsamples = 676\nvalue = [6, 670]"] ;
519 -> 520 ;
521 [label="x[9] <= 0.292\ngini = 0.015\nsamples = 675\nvalue = [5, 670]"] ;
520 -> 521 ;
522 [label="x[9] <= 0.288\ngini = 0.153\nsamples = 12\nvalue = [1, 11]"] ;
521 -> 522 ;
523 [label="gini = 0.0\nsamples = 11\nvalue = [0, 11]"] ;
522 -> 523 ;
524 [label="gini = 0.0\nsamples = 1\nvalue = [1, 0]"] ;
522 -> 524 ;
525 [label="x[6] <= -2.186\ngini = 0.012\nsamples = 663\nvalue = [4, 659]"] ;
521 -> 525 ;
526 [label="x[6] <= -2.206\ngini = 0.153\nsamples = 12\nvalue = [1, 11]"] ;
525 -> 526 ;
527 [label="gini = 0.0\nsamples = 11\nvalue = [0, 11]"] ;
526 -> 527 ;
528 [label="gini = 0.0\nsamples = 1\nvalue = [1, 0]"] ;
526 -> 528 ;
529 [label="x[8] <= -1.998\ngini = 0.009\nsamples = 651\nvalue = [3, 648]"] ;
525 -> 529 ;
530 [label="x[8] <= -2.014\ngini = 0.142\nsamples = 13\nvalue = [1, 12]"] ;
529 -> 530 ;
531 [label="gini = 0.0\nsamples = 12\nvalue = [0, 12]"] ;
530 -> 531 ;
532 [label="gini = 0.0\nsamples = 1\nvalue = [1, 0]"] ;
530 -> 532 ;
533 [label="x[8] <= 1.463\ngini = 0.006\nsamples = 638\nvalue = [2, 636]"] ;
529 -> 533 ;
534 [label="x[4] <= 1.571\ngini = 0.003\nsamples = 602\nvalue = [1, 601]"] ;
533 -> 534 ;
535 [label="gini = 0.0\nsamples = 566\nvalue = [0, 566]"] ;
534 -> 535 ;
536 [label="x[4] <= 1.593\ngini = 0.054\nsamples = 36\nvalue = [1, 35]"] ;
534 -> 536 ;
537 [label="gini = 0.0\nsamples = 1\nvalue = [1, 0]"] ;
536 -> 537 ;
538 [label="gini = 0.0\nsamples = 35\nvalue = [0, 35]"] ;
536 -> 538 ;
539 [label="x[8] <= 1.49\ngini = 0.054\nsamples = 36\nvalue = [1, 35]"] ;
533 -> 539 ;
540 [label="gini = 0.0\nsamples = 1\nvalue = [1, 0]"] ;
539 -> 540 ;
541 [label="gini = 0.0\nsamples = 35\nvalue = [0, 35]"] ;
539 -> 541 ;
542 [label="gini = 0.0\nsamples = 1\nvalue = [1, 0]"] ;
520 -> 542 ;
543 [label="x[8] <= 1.737\ngini = 0.002\nsamples = 1718\nvalue = [2, 1716]"] ;
519 -> 543 ;
544 [label="x[8] <= -1.011\ngini = 0.001\nsamples = 1656\nvalue = [1, 1655]"] ;
543 -> 544 ;
545 [label="x[8] <= -1.012\ngini = 0.008\nsamples = 257\nvalue = [1, 256]"] ;
544 -> 545 ;
546 [label="gini = 0.0\nsamples = 256\nvalue = [0, 256]"] ;
545 -> 546 ;
547 [label="gini = 0.0\nsamples = 1\nvalue = [1, 0]"] ;
545 -> 547 ;
548 [label="gini = 0.0\nsamples = 1399\nvalue = [0, 1399]"] ;
544 -> 548 ;
549 [label="x[8] <= 1.746\ngini = 0.032\nsamples = 62\nvalue = [1, 61]"] ;
543 -> 549 ;
550 [label="gini = 0.0\nsamples = 1\nvalue = [1, 0]"] ;
549 -> 550 ;
551 [label="gini = 0.0\nsamples = 61\nvalue = [0, 61]"] ;
549 -> 551 ;
552 [label="gini = 0.0\nsamples = 1\nvalue = [1, 0]"] ;
482 -> 552 ;
}